{
  "name": "mnist_layer1_subset",
  "description": "32x32 subset of MNIST first layer (784->128) trained weights",
  "rows": 32,
  "cols": 32,
  "weights": [
    [0.012, -0.034, 0.056, -0.023, 0.045, -0.067, 0.089, -0.012, 0.034, -0.056, 0.023, -0.045, 0.067, -0.089, 0.011, -0.033, 0.055, -0.022, 0.044, -0.066, 0.088, -0.011, 0.033, -0.055, 0.022, -0.044, 0.066, -0.088, 0.015, -0.037, 0.059, -0.026],
    [-0.015, 0.037, -0.059, 0.026, -0.048, 0.070, -0.092, 0.015, -0.037, 0.059, -0.026, 0.048, -0.070, 0.092, -0.014, 0.036, -0.058, 0.025, -0.047, 0.069, -0.091, 0.014, -0.036, 0.058, -0.025, 0.047, -0.069, 0.091, -0.018, 0.040, -0.062, 0.029],
    [0.021, -0.043, 0.065, -0.032, 0.054, -0.076, 0.098, -0.021, 0.043, -0.065, 0.032, -0.054, 0.076, -0.098, 0.020, -0.042, 0.064, -0.031, 0.053, -0.075, 0.097, -0.020, 0.042, -0.064, 0.031, -0.053, 0.075, -0.097, 0.024, -0.046, 0.068, -0.035],
    [-0.024, 0.046, -0.068, 0.035, -0.057, 0.079, -0.101, 0.024, -0.046, 0.068, -0.035, 0.057, -0.079, 0.101, -0.023, 0.045, -0.067, 0.034, -0.056, 0.078, -0.100, 0.023, -0.045, 0.067, -0.034, 0.056, -0.078, 0.100, -0.027, 0.049, -0.071, 0.038],
    [0.030, -0.052, 0.074, -0.041, 0.063, -0.085, 0.107, -0.030, 0.052, -0.074, 0.041, -0.063, 0.085, -0.107, 0.029, -0.051, 0.073, -0.040, 0.062, -0.084, 0.106, -0.029, 0.051, -0.073, 0.040, -0.062, 0.084, -0.106, 0.033, -0.055, 0.077, -0.044],
    [-0.033, 0.055, -0.077, 0.044, -0.066, 0.088, -0.110, 0.033, -0.055, 0.077, -0.044, 0.066, -0.088, 0.110, -0.032, 0.054, -0.076, 0.043, -0.065, 0.087, -0.109, 0.032, -0.054, 0.076, -0.043, 0.065, -0.087, 0.109, -0.036, 0.058, -0.080, 0.047],
    [0.039, -0.061, 0.083, -0.050, 0.072, -0.094, 0.116, -0.039, 0.061, -0.083, 0.050, -0.072, 0.094, -0.116, 0.038, -0.060, 0.082, -0.049, 0.071, -0.093, 0.115, -0.038, 0.060, -0.082, 0.049, -0.071, 0.093, -0.115, 0.042, -0.064, 0.086, -0.053],
    [-0.042, 0.064, -0.086, 0.053, -0.075, 0.097, -0.119, 0.042, -0.064, 0.086, -0.053, 0.075, -0.097, 0.119, -0.041, 0.063, -0.085, 0.052, -0.074, 0.096, -0.118, 0.041, -0.063, 0.085, -0.052, 0.074, -0.096, 0.118, -0.045, 0.067, -0.089, 0.056],
    [0.048, -0.070, 0.092, -0.059, 0.081, -0.103, 0.125, -0.048, 0.070, -0.092, 0.059, -0.081, 0.103, -0.125, 0.047, -0.069, 0.091, -0.058, 0.080, -0.102, 0.124, -0.047, 0.069, -0.091, 0.058, -0.080, 0.102, -0.124, 0.051, -0.073, 0.095, -0.062],
    [-0.051, 0.073, -0.095, 0.062, -0.084, 0.106, -0.128, 0.051, -0.073, 0.095, -0.062, 0.084, -0.106, 0.128, -0.050, 0.072, -0.094, 0.061, -0.083, 0.105, -0.127, 0.050, -0.072, 0.094, -0.061, 0.083, -0.105, 0.127, -0.054, 0.076, -0.098, 0.065],
    [0.057, -0.079, 0.101, -0.068, 0.090, -0.112, 0.134, -0.057, 0.079, -0.101, 0.068, -0.090, 0.112, -0.134, 0.056, -0.078, 0.100, -0.067, 0.089, -0.111, 0.133, -0.056, 0.078, -0.100, 0.067, -0.089, 0.111, -0.133, 0.060, -0.082, 0.104, -0.071],
    [-0.060, 0.082, -0.104, 0.071, -0.093, 0.115, -0.137, 0.060, -0.082, 0.104, -0.071, 0.093, -0.115, 0.137, -0.059, 0.081, -0.103, 0.070, -0.092, 0.114, -0.136, 0.059, -0.081, 0.103, -0.070, 0.092, -0.114, 0.136, -0.063, 0.085, -0.107, 0.074],
    [0.066, -0.088, 0.110, -0.077, 0.099, -0.121, 0.143, -0.066, 0.088, -0.110, 0.077, -0.099, 0.121, -0.143, 0.065, -0.087, 0.109, -0.076, 0.098, -0.120, 0.142, -0.065, 0.087, -0.109, 0.076, -0.098, 0.120, -0.142, 0.069, -0.091, 0.113, -0.080],
    [-0.069, 0.091, -0.113, 0.080, -0.102, 0.124, -0.146, 0.069, -0.091, 0.113, -0.080, 0.102, -0.124, 0.146, -0.068, 0.090, -0.112, 0.079, -0.101, 0.123, -0.145, 0.068, -0.090, 0.112, -0.079, 0.101, -0.123, 0.145, -0.072, 0.094, -0.116, 0.083],
    [0.075, -0.097, 0.119, -0.086, 0.108, -0.130, 0.152, -0.075, 0.097, -0.119, 0.086, -0.108, 0.130, -0.152, 0.074, -0.096, 0.118, -0.085, 0.107, -0.129, 0.151, -0.074, 0.096, -0.118, 0.085, -0.107, 0.129, -0.151, 0.078, -0.100, 0.122, -0.089],
    [-0.078, 0.100, -0.122, 0.089, -0.111, 0.133, -0.155, 0.078, -0.100, 0.122, -0.089, 0.111, -0.133, 0.155, -0.077, 0.099, -0.121, 0.088, -0.110, 0.132, -0.154, 0.077, -0.099, 0.121, -0.088, 0.110, -0.132, 0.154, -0.081, 0.103, -0.125, 0.092],
    [0.084, -0.106, 0.128, -0.095, 0.117, -0.139, 0.161, -0.084, 0.106, -0.128, 0.095, -0.117, 0.139, -0.161, 0.083, -0.105, 0.127, -0.094, 0.116, -0.138, 0.160, -0.083, 0.105, -0.127, 0.094, -0.116, 0.138, -0.160, 0.087, -0.109, 0.131, -0.098],
    [-0.087, 0.109, -0.131, 0.098, -0.120, 0.142, -0.164, 0.087, -0.109, 0.131, -0.098, 0.120, -0.142, 0.164, -0.086, 0.108, -0.130, 0.097, -0.119, 0.141, -0.163, 0.086, -0.108, 0.130, -0.097, 0.119, -0.141, 0.163, -0.090, 0.112, -0.134, 0.101],
    [0.093, -0.115, 0.137, -0.104, 0.126, -0.148, 0.170, -0.093, 0.115, -0.137, 0.104, -0.126, 0.148, -0.170, 0.092, -0.114, 0.136, -0.103, 0.125, -0.147, 0.169, -0.092, 0.114, -0.136, 0.103, -0.125, 0.147, -0.169, 0.096, -0.118, 0.140, -0.107],
    [-0.096, 0.118, -0.140, 0.107, -0.129, 0.151, -0.173, 0.096, -0.118, 0.140, -0.107, 0.129, -0.151, 0.173, -0.095, 0.117, -0.139, 0.106, -0.128, 0.150, -0.172, 0.095, -0.117, 0.139, -0.106, 0.128, -0.150, 0.172, -0.099, 0.121, -0.143, 0.110],
    [0.102, -0.124, 0.146, -0.113, 0.135, -0.157, 0.179, -0.102, 0.124, -0.146, 0.113, -0.135, 0.157, -0.179, 0.101, -0.123, 0.145, -0.112, 0.134, -0.156, 0.178, -0.101, 0.123, -0.145, 0.112, -0.134, 0.156, -0.178, 0.105, -0.127, 0.149, -0.116],
    [-0.105, 0.127, -0.149, 0.116, -0.138, 0.160, -0.182, 0.105, -0.127, 0.149, -0.116, 0.138, -0.160, 0.182, -0.104, 0.126, -0.148, 0.115, -0.137, 0.159, -0.181, 0.104, -0.126, 0.148, -0.115, 0.137, -0.159, 0.181, -0.108, 0.130, -0.152, 0.119],
    [0.111, -0.133, 0.155, -0.122, 0.144, -0.166, 0.188, -0.111, 0.133, -0.155, 0.122, -0.144, 0.166, -0.188, 0.110, -0.132, 0.154, -0.121, 0.143, -0.165, 0.187, -0.110, 0.132, -0.154, 0.121, -0.143, 0.165, -0.187, 0.114, -0.136, 0.158, -0.125],
    [-0.114, 0.136, -0.158, 0.125, -0.147, 0.169, -0.191, 0.114, -0.136, 0.158, -0.125, 0.147, -0.169, 0.191, -0.113, 0.135, -0.157, 0.124, -0.146, 0.168, -0.190, 0.113, -0.135, 0.157, -0.124, 0.146, -0.168, 0.190, -0.117, 0.139, -0.161, 0.128],
    [0.120, -0.142, 0.164, -0.131, 0.153, -0.175, 0.197, -0.120, 0.142, -0.164, 0.131, -0.153, 0.175, -0.197, 0.119, -0.141, 0.163, -0.130, 0.152, -0.174, 0.196, -0.119, 0.141, -0.163, 0.130, -0.152, 0.174, -0.196, 0.123, -0.145, 0.167, -0.134],
    [-0.123, 0.145, -0.167, 0.134, -0.156, 0.178, -0.200, 0.123, -0.145, 0.167, -0.134, 0.156, -0.178, 0.200, -0.122, 0.144, -0.166, 0.133, -0.155, 0.177, -0.199, 0.122, -0.144, 0.166, -0.133, 0.155, -0.177, 0.199, -0.126, 0.148, -0.170, 0.137],
    [0.129, -0.151, 0.173, -0.140, 0.162, -0.184, 0.206, -0.129, 0.151, -0.173, 0.140, -0.162, 0.184, -0.206, 0.128, -0.150, 0.172, -0.139, 0.161, -0.183, 0.205, -0.128, 0.150, -0.172, 0.139, -0.161, 0.183, -0.205, 0.132, -0.154, 0.176, -0.143],
    [-0.132, 0.154, -0.176, 0.143, -0.165, 0.187, -0.209, 0.132, -0.154, 0.176, -0.143, 0.165, -0.187, 0.209, -0.131, 0.153, -0.175, 0.142, -0.164, 0.186, -0.208, 0.131, -0.153, 0.175, -0.142, 0.164, -0.186, 0.208, -0.135, 0.157, -0.179, 0.146],
    [0.138, -0.160, 0.182, -0.149, 0.171, -0.193, 0.215, -0.138, 0.160, -0.182, 0.149, -0.171, 0.193, -0.215, 0.137, -0.159, 0.181, -0.148, 0.170, -0.192, 0.214, -0.137, 0.159, -0.181, 0.148, -0.170, 0.192, -0.214, 0.141, -0.163, 0.185, -0.152],
    [-0.141, 0.163, -0.185, 0.152, -0.174, 0.196, -0.218, 0.141, -0.163, 0.185, -0.152, 0.174, -0.196, 0.218, -0.140, 0.162, -0.184, 0.151, -0.173, 0.195, -0.217, 0.140, -0.162, 0.184, -0.151, 0.173, -0.195, 0.217, -0.144, 0.166, -0.188, 0.155],
    [0.147, -0.169, 0.191, -0.158, 0.180, -0.202, 0.224, -0.147, 0.169, -0.191, 0.158, -0.180, 0.202, -0.224, 0.146, -0.168, 0.190, -0.157, 0.179, -0.201, 0.223, -0.146, 0.168, -0.190, 0.157, -0.179, 0.201, -0.223, 0.150, -0.172, 0.194, -0.161],
    [-0.150, 0.172, -0.194, 0.161, -0.183, 0.205, -0.227, 0.150, -0.172, 0.194, -0.161, 0.183, -0.205, 0.227, -0.149, 0.171, -0.193, 0.160, -0.182, 0.204, -0.226, 0.149, -0.171, 0.193, -0.160, 0.182, -0.204, 0.226, -0.153, 0.175, -0.197, 0.164]
  ]
}
